// @ts-nocheck
/* eslint-disable */
/* auto-generated by train.py — do not edit. input order: duration_ms, sample_rate_hz, dominant_range_deg, nondominant_range_deg, drift_ratio, peak_count, valley_count, median_half_amp_deg, std_half_amp_deg, dominant_freq_hz, freq_est_reps, zero_crossing_count, accel_z_range, accel_z_peak_count, is_angle_flat, muscle_abdomen, muscle_arms, muscle_back, muscle_chest, muscle_core, muscle_full_body, muscle_glutes, muscle_legs, muscle_shoulders, muscle_unknown, type_bodyweight, type_cardio, type_compound, type_isolation, type_machine, type_plyometric, type_unknown */
function predictRepCount(input) { var var0; if (input[10] <= 12.5) { if (input[11] <= 26.0) { var0 = 5.0; } else { var0 = 8.0; } } else { if (input[0] <= 57434.5) { var0 = 10.0; } else { var0 = 13.0; } } var var1; if (input[0] <= 56912.0) { if (input[29] <= 0.5) { if (input[24] <= 0.5) { var1 = 5.0; } else { if (input[7] <= 10.842075109481812) { var1 = 7.0; } else { var1 = 8.0; } } } else { var1 = 10.0; } } else { if (input[6] <= 43.0) { var1 = 13.0; } else { var1 = 10.0; } } var var2; if (input[10] <= 14.5) { if (input[12] <= 1.990234375) { if (input[7] <= 5.941070854663849) { var2 = 3.0; } else { var2 = 5.0; } } else { if (input[29] <= 0.5) { var2 = 8.0; } else { var2 = 10.0; } } } else { if (input[5] <= 38.0) { if (input[13] <= 266.0) { var2 = 10.0; } else { var2 = 7.0; } } else { var2 = 13.0; } } var var3; if (input[24] <= 0.5) { if (input[2] <= 36.650390625) { if (input[13] <= 180.5) { var3 = 10.0; } else { var3 = 13.0; } } else { var3 = 10.0; } } else { if (input[11] <= 15.5) { if (input[10] <= 12.0) { var3 = 5.0; } else { var3 = 3.0; } } else { if (input[0] <= 40186.0) { var3 = 8.0; } else { var3 = 7.0; } } } var var4; if (input[31] <= 0.5) { if (input[9] <= 0.23069020360708237) { var4 = 5.0; } else { if (input[10] <= 22.5) { var4 = 10.0; } else { var4 = 13.0; } } } else { if (input[2] <= 22.0001220703125) { var4 = 7.0; } else { var4 = 5.0; } } var var5; if (input[8] <= 4.256928205490112) { if (input[28] <= 0.5) { if (input[1] <= 99.30131912231445) { var5 = 7.0; } else { var5 = 10.0; } } else { var5 = 13.0; } } else { if (input[1] <= 99.27994918823242) { if (input[13] <= 113.5) { var5 = 10.0; } else { var5 = 8.0; } } else { var5 = 5.0; } } var var6; if (input[10] <= 22.0) { if (input[24] <= 0.5) { var6 = 10.0; } else { if (input[4] <= 0.05511267110705376) { var6 = 10.0; } else { if (input[2] <= 25.24658203125) { var6 = 7.0; } else { var6 = 8.0; } } } } else { var6 = 13.0; } var var7; if (input[24] <= 0.5) { if (input[28] <= 0.5) { var7 = 10.0; } else { var7 = 13.0; } } else { if (input[11] <= 15.5) { if (input[7] <= 9.116431057453156) { var7 = 3.0; } else { var7 = 5.0; } } else { if (input[10] <= 14.0) { var7 = 8.0; } else { var7 = 7.0; } } } var var8; if (input[0] <= 51437.0) { if (input[7] <= 22.71163511276245) { if (input[4] <= 0.18899188563227654) { if (input[2] <= 33.24188232421875) { var8 = 7.0; } else { var8 = 8.0; } } else { var8 = 5.0; } } else { var8 = 10.0; } } else { if (input[10] <= 22.0) { var8 = 10.0; } else { var8 = 13.0; } } var var9; if (input[10] <= 13.5) { if (input[7] <= 13.710269451141357) { if (input[2] <= 45.966796875) { var9 = 3.0; } else { var9 = 5.0; } } else { var9 = 8.0; } } else { if (input[0] <= 57434.5) { var9 = 10.0; } else { var9 = 13.0; } } var var10; if (input[0] <= 34515.5) { if (input[13] <= 105.0) { var10 = 5.0; } else { if (input[25] <= 0.5) { var10 = 8.0; } else { var10 = 10.0; } } } else { if (input[0] <= 56912.0) { var10 = 10.0; } else { if (input[4] <= 0.5344129651784897) { var10 = 13.0; } else { var10 = 10.0; } } } var var11; if (input[10] <= 13.5) { if (input[12] <= 2.117431640625) { if (input[7] <= 5.941070854663849) { var11 = 3.0; } else { var11 = 5.0; } } else { var11 = 8.0; } } else { if (input[0] <= 57434.5) { if (input[12] <= 1.05908203125) { var11 = 7.0; } else { var11 = 10.0; } } else { var11 = 13.0; } } var var12; if (input[0] <= 56912.0) { if (input[8] <= 3.0975534915924072) { var12 = 10.0; } else { if (input[11] <= 15.5) { var12 = 5.0; } else { if (input[3] <= 9.7943115234375) { var12 = 10.0; } else { var12 = 7.75; } } } } else { var12 = 13.0; } var var13; if (input[10] <= 13.5) { if (input[3] <= 15.6719970703125) { if (input[2] <= 16.92169189453125) { var13 = 3.0; } else { var13 = 5.0; } } else { var13 = 8.0; } } else { if (input[8] <= 0.39588069915771484) { var13 = 13.0; } else { var13 = 10.0; } } var var14; if (input[12] <= 0.4287109375) { var14 = 3.0; } else { if (input[28] <= 0.5) { if (input[3] <= 9.7943115234375) { var14 = 10.0; } else { if (input[0] <= 40186.0) { var14 = 8.0; } else { var14 = 7.0; } } } else { var14 = 13.0; } } var var15; if (input[10] <= 13.5) { if (input[12] <= 1.990234375) { if (input[12] <= 0.8369140625) { var15 = 3.0; } else { var15 = 5.0; } } else { if (input[11] <= 11.5) { var15 = 10.0; } else { var15 = 8.0; } } } else { if (input[5] <= 39.0) { var15 = 10.0; } else { var15 = 13.0; } } var var16; if (input[0] <= 56912.0) { if (input[1] <= 99.30560302734375) { if (input[12] <= 1.218994140625) { var16 = 7.0; } else { var16 = 5.0; } } else { if (input[12] <= 2.518798828125) { var16 = 10.0; } else { var16 = 8.0; } } } else { if (input[12] <= 1.311767578125) { var16 = 10.0; } else { var16 = 13.0; } } var var17; if (input[31] <= 0.5) { if (input[13] <= 381.0) { var17 = 10.0; } else { var17 = 13.0; } } else { if (input[0] <= 22951.0) { var17 = 5.0; } else { var17 = 8.0; } } var var18; if (input[13] <= 299.0) { if (input[8] <= 3.9678045511245728) { var18 = 10.0; } else { if (input[10] <= 11.5) { if (input[3] <= 22.67303466796875) { var18 = 5.0; } else { var18 = 8.0; } } else { if (input[1] <= 99.40766906738281) { var18 = 10.0; } else { var18 = 8.0; } } } } else { var18 = 13.0; } var var19; if (input[10] <= 13.5) { if (input[11] <= 16.0) { if (input[5] <= 33.0) { var19 = 5.0; } else { var19 = 3.0; } } else { var19 = 8.0; } } else { if (input[0] <= 57434.5) { var19 = 10.0; } else { var19 = 13.0; } } var var20; if (input[10] <= 12.5) { if (input[12] <= 2.347900390625) { var20 = 5.0; } else { var20 = 8.0; } } else { if (input[2] <= 22.049560546875) { var20 = 7.0; } else { if (input[10] <= 22.5) { var20 = 10.0; } else { var20 = 13.0; } } } var var21; if (input[28] <= 0.5) { if (input[10] <= 13.5) { if (input[12] <= 2.117431640625) { if (input[0] <= 54541.5) { var21 = 5.0; } else { var21 = 3.0; } } else { var21 = 8.0; } } else { if (input[3] <= 9.7943115234375) { var21 = 10.0; } else { var21 = 7.0; } } } else { var21 = 13.0; } var var22; if (input[10] <= 13.0) { if (input[5] <= 21.5) { var22 = 5.0; } else { if (input[11] <= 11.5) { var22 = 10.0; } else { var22 = 8.0; } } } else { if (input[10] <= 22.5) { if (input[9] <= 0.24381401389837265) { var22 = 13.0; } else { var22 = 10.0; } } else { var22 = 13.0; } } var var23; if (input[24] <= 0.5) { if (input[0] <= 56912.0) { var23 = 10.0; } else { if (input[2] <= 38.814697265625) { var23 = 13.0; } else { var23 = 10.0; } } } else { if (input[11] <= 15.5) { if (input[5] <= 28.5) { var23 = 5.0; } else { var23 = 3.0; } } else { if (input[9] <= 0.39229291677474976) { if (input[12] <= 1.74755859375) { var23 = 7.0; } else { var23 = 8.0; } } else { var23 = 10.0; } } } var var24; if (input[1] <= 99.30131912231445) { if (input[4] <= 0.18899188563227654) { if (input[7] <= 4.830889463424683) { var24 = 8.0; } else { var24 = 7.0; } } else { var24 = 5.0; } } else { if (input[0] <= 57434.5) { var24 = 10.0; } else { if (input[6] <= 43.0) { var24 = 13.0; } else { var24 = 10.0; } } } var var25; if (input[10] <= 17.5) { if (input[12] <= 2.117431640625) { if (input[10] <= 14.5) { if (input[2] <= 16.92169189453125) { var25 = 3.0; } else { var25 = 5.0; } } else { var25 = 7.0; } } else { if (input[13] <= 203.0) { var25 = 8.0; } else { var25 = 10.0; } } } else { if (input[12] <= 2.232421875) { var25 = 10.0; } else { var25 = 13.0; } } var var26; if (input[10] <= 22.5) { if (input[2] <= 71.905517578125) { if (input[10] <= 8.0) { var26 = 8.0; } else { var26 = 10.0; } } else { var26 = 5.0; } } else { var26 = 13.0; } var var27; if (input[7] <= 11.05766487121582) { if (input[1] <= 99.28554916381836) { var27 = 8.0; } else { var27 = 10.0; } } else { if (input[10] <= 11.5) { var27 = 5.0; } else { var27 = 8.0; } } var var28; if (input[0] <= 56912.0) { if (input[1] <= 99.30560302734375) { if (input[8] <= 9.306863784790039) { if (input[4] <= 0.07099349051713943) { var28 = 7.0; } else { var28 = 8.0; } } else { var28 = 5.0; } } else { var28 = 10.0; } } else { var28 = 13.0; } var var29; if (input[5] <= 18.0) { if (input[12] <= 1.415283203125) { var29 = 10.0; } else { var29 = 5.0; } } else { if (input[5] <= 60.5) { if (input[3] <= 13.1396484375) { var29 = 10.0; } else { var29 = 8.0; } } else { var29 = 13.0; } } var var30; if (input[10] <= 13.5) { if (input[12] <= 2.117431640625) { if (input[9] <= 0.2112170159816742) { var30 = 3.0; } else { var30 = 5.0; } } else { var30 = 8.0; } } else { if (input[0] <= 57434.5) { var30 = 10.0; } else { if (input[1] <= 99.30690002441406) { var30 = 10.0; } else { var30 = 13.0; } } } var var31; if (input[31] <= 0.5) { if (input[0] <= 57434.5) { var31 = 10.0; } else { var31 = 13.0; } } else { if (input[11] <= 13.0) { var31 = 3.0; } else { if (input[0] <= 40186.0) { var31 = 8.0; } else { var31 = 7.0; } } } var var32; if (input[10] <= 22.5) { if (input[9] <= 0.23069020360708237) { var32 = 5.0; } else { if (input[31] <= 0.5) { var32 = 10.0; } else { var32 = 8.0; } } } else { var32 = 13.0; } var var33; if (input[3] <= 6.16607666015625) { if (input[0] <= 57434.5) { var33 = 10.0; } else { var33 = 13.0; } } else { if (input[11] <= 13.0) { if (input[13] <= 309.5) { var33 = 5.0; } else { var33 = 3.0; } } else { if (input[10] <= 17.5) { if (input[0] <= 40186.0) { var33 = 8.0; } else { var33 = 7.0; } } else { var33 = 10.0; } } } var var34; if (input[10] <= 13.5) { if (input[12] <= 1.990234375) { if (input[8] <= 3.522271156311035) { var34 = 3.0; } else { var34 = 5.0; } } else { if (input[3] <= 9.129638671875) { var34 = 10.0; } else { var34 = 8.0; } } } else { if (input[13] <= 299.0) { var34 = 10.0; } else { var34 = 13.0; } } var var35; if (input[5] <= 46.0) { if (input[7] <= 112.58925819396973) { if (input[10] <= 13.0) { var35 = 8.0; } else { var35 = 10.0; } } else { var35 = 13.0; } } else { var35 = 3.0; } var var36; if (input[3] <= 6.16607666015625) { if (input[2] <= 48.93035888671875) { var36 = 13.0; } else { var36 = 10.0; } } else { if (input[11] <= 13.0) { if (input[24] <= 0.5) { var36 = 5.0; } else { var36 = 3.0; } } else { if (input[8] <= 3.0975534915924072) { var36 = 10.0; } else { if (input[0] <= 40186.0) { var36 = 8.0; } else { var36 = 7.0; } } } } var var37; if (input[10] <= 12.5) { var37 = 5.0; } else { if (input[0] <= 57434.5) { if (input[13] <= 266.0) { var37 = 10.0; } else { var37 = 7.0; } } else { if (input[12] <= 1.311767578125) { var37 = 10.0; } else { var37 = 13.0; } } } var var38; if (input[24] <= 0.5) { if (input[28] <= 0.5) { var38 = 10.0; } else { var38 = 13.0; } } else { if (input[2] <= 15.07049560546875) { var38 = 3.0; } else { if (input[10] <= 17.5) { if (input[8] <= 4.186022877693176) { var38 = 7.0; } else { var38 = 8.0; } } else { var38 = 10.0; } } } var var39; if (input[10] <= 13.5) { if (input[0] <= 41401.0) { if (input[3] <= 9.129638671875) { var39 = 10.0; } else { var39 = 8.0; } } else { if (input[31] <= 0.5) { var39 = 5.0; } else { var39 = 3.0; } } } else { if (input[0] <= 57434.5) { var39 = 10.0; } else { if (input[4] <= 0.5344129651784897) { var39 = 13.0; } else { var39 = 10.0; } } } var var40; if (input[31] <= 0.5) { if (input[0] <= 57434.5) { var40 = 10.0; } else { var40 = 13.0; } } else { if (input[11] <= 15.5) { if (input[4] <= 0.10551503486931324) { var40 = 5.0; } else { var40 = 3.0; } } else { if (input[13] <= 227.0) { var40 = 8.0; } else { var40 = 7.0; } } } var var41; if (input[10] <= 13.5) { if (input[12] <= 2.117431640625) { if (input[5] <= 33.0) { var41 = 5.0; } else { var41 = 3.0; } } else { var41 = 8.0; } } else { if (input[1] <= 99.30560302734375) { var41 = 7.0; } else { if (input[10] <= 21.5) { var41 = 10.0; } else { var41 = 13.0; } } } var var42; if (input[3] <= 4.83123779296875) { if (input[0] <= 56912.0) { var42 = 10.0; } else { var42 = 13.0; } } else { if (input[11] <= 15.5) { if (input[13] <= 309.5) { var42 = 5.0; } else { var42 = 3.0; } } else { if (input[10] <= 16.5) { if (input[11] <= 18.5) { var42 = 7.0; } else { var42 = 8.0; } } else { var42 = 10.0; } } } var var43; if (input[8] <= 2.7642468214035034) { if (input[28] <= 0.5) { var43 = 10.0; } else { var43 = 13.0; } } else { if (input[10] <= 17.0) { if (input[7] <= 8.610583543777466) { if (input[0] <= 40186.0) { var43 = 8.0; } else { var43 = 7.0; } } else { var43 = 5.0; } } else { var43 = 10.0; } } var var44; if (input[3] <= 6.16607666015625) { if (input[0] <= 58859.5) { var44 = 10.0; } else { var44 = 13.0; } } else { if (input[11] <= 15.5) { if (input[8] <= 3.522271156311035) { var44 = 3.0; } else { var44 = 5.0; } } else { if (input[4] <= 0.12172269448637962) { if (input[12] <= 1.74755859375) { var44 = 7.0; } else { var44 = 8.0; } } else { var44 = 10.0; } } } var var45; if (input[3] <= 6.16607666015625) { if (input[0] <= 57434.5) { var45 = 10.0; } else { var45 = 13.0; } } else { if (input[11] <= 26.0) { var45 = 5.0; } else { var45 = 8.0; } } var var46; if (input[0] <= 80867.0) { if (input[3] <= 15.62530517578125) { var46 = 10.0; } else { var46 = 8.0; } } else { var46 = 13.0; } var var47; if (input[9] <= 0.22692693769931793) { if (input[3] <= 19.92645263671875) { if (input[4] <= 0.22989031672477722) { var47 = 3.0; } else { var47 = 5.0; } } else { var47 = 8.0; } } else { if (input[0] <= 57434.5) { if (input[13] <= 253.0) { var47 = 10.0; } else { var47 = 7.0; } } else { if (input[12] <= 1.311767578125) { var47 = 10.0; } else { var47 = 13.0; } } } var var48; if (input[10] <= 13.5) { if (input[10] <= 9.5) { if (input[24] <= 0.5) { var48 = 10.0; } else { var48 = 8.0; } } else { if (input[9] <= 0.2112170159816742) { var48 = 3.0; } else { var48 = 5.0; } } } else { if (input[10] <= 22.5) { var48 = 10.0; } else { var48 = 13.0; } } var var49; if (input[9] <= 0.22692693769931793) { if (input[5] <= 33.0) { var49 = 5.0; } else { var49 = 3.0; } } else { if (input[10] <= 22.0) { if (input[9] <= 0.24492129683494568) { var49 = 13.0; } else { if (input[1] <= 99.39352798461914) { var49 = 10.0; } else { var49 = 8.0; } } } else { var49 = 13.0; } } var var50; if (input[3] <= 6.16607666015625) { if (input[0] <= 57434.5) { var50 = 10.0; } else { if (input[6] <= 43.0) { var50 = 13.0; } else { var50 = 10.0; } } } else { if (input[11] <= 18.0) { if (input[0] <= 54541.5) { var50 = 5.0; } else { var50 = 3.0; } } else { if (input[6] <= 24.5) { var50 = 10.0; } else { var50 = 8.0; } } } var var51; if (input[7] <= 5.606065273284912) { if (input[2] <= 2.625732421875) { var51 = 13.0; } else { var51 = 10.0; } } else { if (input[11] <= 15.5) { var51 = 5.0; } else { if (input[12] <= 0.827880859375) { var51 = 10.0; } else { if (input[8] <= 4.186022877693176) { var51 = 7.0; } else { var51 = 8.0; } } } } var var52; if (input[10] <= 13.5) { if (input[3] <= 12.9254150390625) { if (input[10] <= 11.5) { var52 = 5.0; } else { var52 = 3.0; } } else { var52 = 8.0; } } else { if (input[28] <= 0.5) { var52 = 10.0; } else { var52 = 13.0; } } var var53; if (input[10] <= 13.5) { if (input[11] <= 16.0) { if (input[13] <= 309.5) { var53 = 5.0; } else { var53 = 3.0; } } else { var53 = 8.0; } } else { if (input[9] <= 0.4473157823085785) { var53 = 13.0; } else { var53 = 10.0; } } var var54; if (input[0] <= 52846.0) { if (input[10] <= 17.0) { if (input[4] <= 0.06419950537383556) { var54 = 5.0; } else { if (input[29] <= 0.5) { var54 = 7.75; } else { var54 = 10.0; } } } else { var54 = 10.0; } } else { if (input[0] <= 68732.0) { var54 = 13.0; } else { var54 = 10.0; } } var var55; if (input[10] <= 13.5) { if (input[11] <= 16.0) { if (input[7] <= 5.941070854663849) { var55 = 3.0; } else { var55 = 5.0; } } else { var55 = 8.0; } } else { if (input[0] <= 58859.5) { if (input[3] <= 9.7943115234375) { var55 = 10.0; } else { var55 = 7.0; } } else { var55 = 13.0; } } var var56; if (input[6] <= 37.5) { if (input[6] <= 16.0) { var56 = 13.0; } else { if (input[1] <= 99.30560302734375) { var56 = 7.0; } else { var56 = 10.0; } } } else { if (input[12] <= 2.347900390625) { if (input[6] <= 39.5) { var56 = 5.0; } else { var56 = 3.0; } } else { var56 = 8.0; } } var var57; if (input[8] <= 2.7642468214035034) { if (input[0] <= 56912.0) { var57 = 10.0; } else { var57 = 13.0; } } else { if (input[17] <= 0.5) { if (input[8] <= 9.306863784790039) { if (input[4] <= 0.07099349051713943) { var57 = 7.0; } else { var57 = 8.0; } } else { var57 = 5.0; } } else { var57 = 10.0; } } var var58; if (input[9] <= 0.23069020360708237) { if (input[12] <= 2.347900390625) { if (input[24] <= 0.5) { var58 = 5.0; } else { var58 = 3.0; } } else { var58 = 8.0; } } else { if (input[10] <= 22.5) { if (input[1] <= 99.40766906738281) { var58 = 10.0; } else { var58 = 8.0; } } else { var58 = 13.0; } } var var59; if (input[9] <= 0.21037284284830093) { var59 = 3.0; } else { if (input[28] <= 0.5) { if (input[10] <= 16.5) { if (input[29] <= 0.5) { var59 = 7.8; } else { var59 = 10.0; } } else { var59 = 10.0; } } else { var59 = 13.0; } } var var60; if (input[0] <= 57434.5) { if (input[7] <= 11.05766487121582) { var60 = 10.0; } else { if (input[10] <= 11.5) { var60 = 5.0; } else { if (input[1] <= 99.34357452392578) { var60 = 10.0; } else { var60 = 8.0; } } } } else { var60 = 13.0; } var var61; if (input[31] <= 0.5) { if (input[10] <= 22.5) { var61 = 10.0; } else { var61 = 13.0; } } else { if (input[11] <= 15.5) { if (input[11] <= 10.5) { var61 = 3.0; } else { var61 = 5.0; } } else { if (input[2] <= 33.24188232421875) { var61 = 7.0; } else { var61 = 8.0; } } } var var62; if (input[24] <= 0.5) { if (input[13] <= 381.0) { var62 = 10.0; } else { var62 = 13.0; } } else { if (input[2] <= 35.09307861328125) { if (input[11] <= 10.5) { var62 = 3.0; } else { var62 = 5.0; } } else { var62 = 8.0; } } var var63; if (input[3] <= 5.9820556640625) { if (input[1] <= 99.31118392944336) { var63 = 10.0; } else { if (input[10] <= 11.5) { var63 = 10.0; } else { var63 = 13.0; } } } else { if (input[11] <= 15.5) { if (input[0] <= 54541.5) { var63 = 5.0; } else { var63 = 3.0; } } else { if (input[18] <= 0.5) { if (input[4] <= 0.07099349051713943) { var63 = 7.0; } else { var63 = 8.0; } } else { var63 = 10.0; } } } var var64; if (input[4] <= 0.25809458643198013) { if (input[31] <= 0.5) { if (input[4] <= 0.1921856328845024) { var64 = 10.0; } else { var64 = 13.0; } } else { if (input[4] <= 0.05511267110705376) { var64 = 10.0; } else { if (input[11] <= 18.5) { var64 = 7.0; } else { var64 = 8.0; } } } } else { var64 = 5.0; } var var65; if (input[10] <= 13.5) { if (input[12] <= 1.990234375) { if (input[9] <= 0.2112170159816742) { var65 = 3.0; } else { var65 = 5.0; } } else { if (input[7] <= 1.9692062819376588) { var65 = 10.0; } else { var65 = 8.0; } } } else { if (input[5] <= 28.5) { var65 = 10.0; } else { if (input[22] <= 0.5) { var65 = 13.0; } else { var65 = 10.0; } } } var var66; if (input[0] <= 56912.0) { if (input[3] <= 6.0589599609375) { var66 = 10.0; } else { if (input[2] <= 23.9007568359375) { if (input[4] <= 0.06419950537383556) { var66 = 5.0; } else { var66 = 7.0; } } else { if (input[7] <= 17.652470588684082) { var66 = 8.0; } else { var66 = 10.0; } } } } else { if (input[4] <= 0.5344129651784897) { var66 = 13.0; } else { var66 = 10.0; } } var var67; if (input[10] <= 13.5) { if (input[12] <= 2.117431640625) { if (input[10] <= 12.0) { var67 = 5.0; } else { var67 = 3.0; } } else { var67 = 8.0; } } else { if (input[0] <= 57434.5) { var67 = 10.0; } else { if (input[6] <= 43.0) { var67 = 13.0; } else { var67 = 10.0; } } } var var68; if (input[10] <= 13.5) { if (input[12] <= 1.990234375) { if (input[9] <= 0.2112170159816742) { var68 = 3.0; } else { var68 = 5.0; } } else { if (input[29] <= 0.5) { var68 = 8.0; } else { var68 = 10.0; } } } else { if (input[8] <= 2.9723963737487793) { var68 = 13.0; } else { var68 = 10.0; } } var var69; if (input[9] <= 0.22434082627296448) { var69 = 3.0; } else { if (input[0] <= 57434.5) { if (input[31] <= 0.5) { var69 = 10.0; } else { var69 = 8.0; } } else { if (input[12] <= 1.311767578125) { var69 = 10.0; } else { var69 = 13.0; } } } var var70; if (input[10] <= 13.5) { if (input[12] <= 1.990234375) { if (input[12] <= 0.8369140625) { var70 = 3.0; } else { var70 = 5.0; } } else { if (input[14] <= 0.5) { var70 = 8.0; } else { var70 = 10.0; } } } else { var70 = 10.0; } var var71; if (input[10] <= 13.5) { if (input[12] <= 1.990234375) { if (input[5] <= 33.0) { var71 = 5.0; } else { var71 = 3.0; } } else { if (input[8] <= 2.610327056609094) { var71 = 10.0; } else { var71 = 8.0; } } } else { if (input[12] <= 1.338134765625) { var71 = 10.0; } else { var71 = 13.0; } } var var72; if (input[9] <= 0.22692693769931793) { if (input[2] <= 45.966796875) { var72 = 3.0; } else { var72 = 5.0; } } else { if (input[0] <= 57434.5) { if (input[13] <= 266.0) { if (input[1] <= 99.40766906738281) { var72 = 10.0; } else { var72 = 8.0; } } else { var72 = 7.0; } } else { var72 = 13.0; } } var var73; if (input[1] <= 99.30131912231445) { if (input[3] <= 3.75457763671875) { var73 = 10.0; } else { if (input[2] <= 51.04522705078125) { var73 = 7.0; } else { var73 = 5.0; } } } else { if (input[0] <= 57434.5) { var73 = 10.0; } else { if (input[2] <= 38.814697265625) { var73 = 13.0; } else { var73 = 10.0; } } } var var74; if (input[3] <= 6.16607666015625) { if (input[10] <= 22.5) { var74 = 10.0; } else { var74 = 13.0; } } else { if (input[5] <= 19.0) { var74 = 5.0; } else { if (input[3] <= 15.62530517578125) { var74 = 10.0; } else { var74 = 8.0; } } } var var75; if (input[5] <= 19.0) { if (input[12] <= 1.1533203125) { var75 = 10.0; } else { var75 = 5.0; } } else { if (input[0] <= 57434.5) { if (input[0] <= 33765.5) { var75 = 8.0; } else { var75 = 10.0; } } else { var75 = 13.0; } } var var76; if (input[13] <= 310.0) { if (input[9] <= 0.7253383994102478) { if (input[1] <= 99.30560302734375) { if (input[12] <= 1.97802734375) { var76 = 7.0; } else { var76 = 8.0; } } else { if (input[3] <= 15.62530517578125) { var76 = 10.0; } else { var76 = 8.0; } } } else { var76 = 5.0; } } else { var76 = 13.0; } var var77; if (input[31] <= 0.5) { if (input[5] <= 28.5) { var77 = 10.0; } else { var77 = 13.0; } } else { if (input[8] <= 4.048778653144836) { var77 = 7.0; } else { var77 = 5.0; } } var var78; if (input[3] <= 5.9820556640625) { if (input[8] <= 4.9370317459106445) { if (input[9] <= 0.24492129683494568) { var78 = 13.0; } else { var78 = 10.0; } } else { var78 = 13.0; } } else { if (input[10] <= 11.5) { var78 = 5.0; } else { if (input[31] <= 0.5) { var78 = 10.0; } else { if (input[6] <= 14.5) { var78 = 8.0; } else { var78 = 7.0; } } } } var var79; if (input[10] <= 13.5) { if (input[12] <= 1.990234375) { if (input[6] <= 39.5) { var79 = 5.0; } else { var79 = 3.0; } } else { var79 = 10.0; } } else { if (input[0] <= 57434.5) { var79 = 10.0; } else { var79 = 13.0; } } var var80; if (input[10] <= 13.5) { if (input[10] <= 8.5) { var80 = 8.0; } else { if (input[8] <= 3.522271156311035) { var80 = 3.0; } else { var80 = 5.0; } } } else { if (input[28] <= 0.5) { if (input[12] <= 1.03271484375) { var80 = 7.0; } else { var80 = 10.0; } } else { var80 = 13.0; } } var var81; if (input[10] <= 22.0) { if (input[1] <= 99.30131912231445) { if (input[5] <= 26.0) { var81 = 5.0; } else { if (input[2] <= 33.24188232421875) { var81 = 7.0; } else { var81 = 8.0; } } } else { if (input[24] <= 0.5) { var81 = 10.0; } else { var81 = 8.0; } } } else { var81 = 13.0; } var var82; if (input[0] <= 57434.5) { if (input[3] <= 6.16607666015625) { var82 = 10.0; } else { if (input[11] <= 15.5) { var82 = 5.0; } else { if (input[3] <= 9.7943115234375) { var82 = 10.0; } else { var82 = 7.666666666666667; } } } } else { var82 = 13.0; } var var83; if (input[0] <= 57434.5) { if (input[2] <= 23.9007568359375) { if (input[11] <= 15.5) { var83 = 5.0; } else { var83 = 7.0; } } else { if (input[0] <= 35057.5) { var83 = 8.0; } else { var83 = 10.0; } } } else { var83 = 13.0; } var var84; if (input[10] <= 13.5) { if (input[11] <= 16.0) { if (input[10] <= 12.0) { var84 = 5.0; } else { var84 = 3.0; } } else { var84 = 8.0; } } else { if (input[12] <= 1.338134765625) { var84 = 10.0; } else { if (input[4] <= 0.6311955600976944) { var84 = 13.0; } else { var84 = 10.0; } } } var var85; if (input[24] <= 0.5) { if (input[0] <= 57434.5) { var85 = 10.0; } else { if (input[12] <= 1.311767578125) { var85 = 10.0; } else { var85 = 13.0; } } } else { if (input[3] <= 9.580078125) { var85 = 3.0; } else { if (input[13] <= 170.5) { var85 = 5.0; } else { var85 = 7.0; } } } var var86; if (input[24] <= 0.5) { if (input[0] <= 56912.0) { var86 = 10.0; } else { var86 = 13.0; } } else { if (input[1] <= 99.43147659301758) { if (input[12] <= 1.74755859375) { var86 = 7.0; } else { var86 = 8.0; } } else { var86 = 5.0; } } var var87; if (input[24] <= 0.5) { if (input[23] <= 0.5) { if (input[10] <= 28.0) { var87 = 10.0; } else { var87 = 13.0; } } else { var87 = 5.0; } } else { if (input[1] <= 99.3047866821289) { var87 = 7.0; } else { if (input[8] <= 3.522271156311035) { var87 = 3.0; } else { var87 = 5.0; } } } var var88; if (input[10] <= 22.5) { if (input[0] <= 34515.5) { var88 = 8.0; } else { if (input[23] <= 0.5) { var88 = 10.0; } else { var88 = 13.0; } } } else { var88 = 13.0; } var var89; if (input[10] <= 22.5) { if (input[3] <= 6.16607666015625) { var89 = 10.0; } else { if (input[4] <= 0.20244016125798225) { if (input[10] <= 14.0) { var89 = 8.0; } else { var89 = 7.0; } } else { var89 = 5.0; } } } else { var89 = 13.0; } var var90; if (input[3] <= 5.9820556640625) { if (input[4] <= 0.1921856328845024) { var90 = 10.0; } else { var90 = 13.0; } } else { if (input[4] <= 0.02938314329367131) { var90 = 13.0; } else { if (input[11] <= 15.5) { if (input[13] <= 309.5) { var90 = 5.0; } else { var90 = 3.0; } } else { if (input[10] <= 11.5) { var90 = 8.0; } else { var90 = 7.0; } } } } var var91; if (input[9] <= 0.21037284284830093) { var91 = 3.0; } else { if (input[1] <= 99.2957763671875) { if (input[1] <= 99.27994918823242) { var91 = 8.0; } else { var91 = 5.0; } } else { if (input[12] <= 2.232421875) { var91 = 10.0; } else { var91 = 13.0; } } } var var92; if (input[10] <= 13.5) { if (input[12] <= 1.990234375) { if (input[12] <= 0.8369140625) { var92 = 3.0; } else { var92 = 5.0; } } else { if (input[8] <= 2.610327056609094) { var92 = 10.0; } else { var92 = 8.0; } } } else { if (input[10] <= 22.0) { var92 = 10.0; } else { var92 = 13.0; } } var var93; if (input[9] <= 0.22692693769931793) { if (input[4] <= 0.11230902001261711) { var93 = 8.0; } else { if (input[10] <= 11.5) { var93 = 5.0; } else { var93 = 3.0; } } } else { if (input[0] <= 57434.5) { if (input[13] <= 266.0) { if (input[1] <= 99.38235473632812) { var93 = 10.0; } else { var93 = 8.0; } } else { var93 = 7.0; } } else { var93 = 13.0; } } var var94; if (input[10] <= 14.5) { if (input[3] <= 15.6719970703125) { if (input[0] <= 38356.0) { var94 = 5.0; } else { var94 = 3.0; } } else { var94 = 8.0; } } else { if (input[0] <= 58337.0) { var94 = 10.0; } else { var94 = 13.0; } } var var95; if (input[10] <= 13.5) { if (input[12] <= 2.117431640625) { if (input[12] <= 0.8369140625) { var95 = 3.0; } else { var95 = 5.0; } } else { var95 = 8.0; } } else { if (input[12] <= 1.311767578125) { var95 = 10.0; } else { var95 = 13.0; } } var var96; if (input[9] <= 0.23069020360708237) { if (input[12] <= 2.347900390625) { if (input[11] <= 5.5) { var96 = 5.0; } else { var96 = 3.0; } } else { var96 = 8.0; } } else { if (input[16] <= 0.5) { if (input[13] <= 266.0) { var96 = 10.0; } else { var96 = 7.0; } } else { var96 = 13.0; } } var var97; if (input[9] <= 0.22692693769931793) { if (input[10] <= 8.5) { var97 = 8.0; } else { if (input[11] <= 5.5) { var97 = 5.0; } else { var97 = 3.0; } } } else { if (input[0] <= 57434.5) { if (input[13] <= 266.0) { if (input[1] <= 99.39352798461914) { var97 = 10.0; } else { var97 = 8.0; } } else { var97 = 7.0; } } else { var97 = 13.0; } } var var98; if (input[28] <= 0.5) { if (input[12] <= 0.4287109375) { var98 = 3.0; } else { if (input[3] <= 6.16607666015625) { var98 = 10.0; } else { if (input[13] <= 197.0) { var98 = 8.666666666666666; } else { var98 = 6.333333333333333; } } } } else { var98 = 13.0; } var var99; if (input[10] <= 16.5) { if (input[13] <= 197.0) { if (input[7] <= 1.9692062819376588) { var99 = 10.0; } else { var99 = 8.0; } } else { if (input[2] <= 15.07049560546875) { var99 = 3.0; } else { if (input[27] <= 0.5) { var99 = 7.0; } else { var99 = 5.0; } } } } else { if (input[12] <= 2.232421875) { var99 = 10.0; } else { var99 = 13.0; } } return (var0 + var1 + var2 + var3 + var4 + var5 + var6 + var7 + var8 + var9 + var10 + var11 + var12 + var13 + var14 + var15 + var16 + var17 + var18 + var19 + var20 + var21 + var22 + var23 + var24 + var25 + var26 + var27 + var28 + var29 + var30 + var31 + var32 + var33 + var34 + var35 + var36 + var37 + var38 + var39 + var40 + var41 + var42 + var43 + var44 + var45 + var46 + var47 + var48 + var49 + var50 + var51 + var52 + var53 + var54 + var55 + var56 + var57 + var58 + var59 + var60 + var61 + var62 + var63 + var64 + var65 + var66 + var67 + var68 + var69 + var70 + var71 + var72 + var73 + var74 + var75 + var76 + var77 + var78 + var79 + var80 + var81 + var82 + var83 + var84 + var85 + var86 + var87 + var88 + var89 + var90 + var91 + var92 + var93 + var94 + var95 + var96 + var97 + var98 + var99) * 0.01; }
