// @ts-nocheck
/* eslint-disable */
/* auto-generated by train.py — do not edit. input order: duration_ms, sample_rate_hz, dominant_range_deg, nondominant_range_deg, drift_ratio, peak_count, valley_count, median_half_amp_deg, std_half_amp_deg, dominant_freq_hz, freq_est_reps, zero_crossing_count, accel_z_range, accel_z_peak_count, is_angle_flat, set_number, muscle_abdomen, muscle_arms, muscle_back, muscle_chest, muscle_core, muscle_full_body, muscle_glutes, muscle_legs, muscle_shoulders, muscle_unknown, equip_barbell, equip_bodyweight, equip_cable, equip_cardio, equip_dumbbell, equip_kettlebell, equip_machine, equip_other, equip_plate_machine, equip_pneumatic_machine, equip_resistance_band, equip_smith_machine, equip_unknown, mechanic_cardio, mechanic_compound, mechanic_isolation, mechanic_mobility, mechanic_other, mechanic_plyometric, mechanic_stretching, mechanic_unknown */
function predictRepCount(input) { var var0; if (input[0] <= 56912.0) { if (input[4] <= 0.05218094773590565) { if (input[11] <= 5.5) { if (input[8] <= 2.595595568418503) { var0 = 8.0; } else { var0 = 9.0; } } else { var0 = 10.0; } } else { if (input[0] <= 42221.0) { var0 = 5.0; } else { var0 = 6.0; } } } else { var0 = 13.0; } var var1; if (input[6] <= 41.0) { if (input[0] <= 57434.5) { if (input[9] <= 0.21001135557889938) { var1 = 8.0; } else { var1 = 10.0; } } else { var1 = 13.0; } } else { if (input[7] <= 0.0928369015455246) { var1 = 8.0; } else { var1 = 6.0; } } var var2; if (input[32] <= 0.5) { if (input[10] <= 22.5) { var2 = 10.0; } else { var2 = 13.0; } } else { if (input[4] <= 0.043147895485162735) { if (input[12] <= 1.90283203125) { var2 = 8.0; } else { if (input[2] <= 35.2001953125) { var2 = 9.0; } else { var2 = 10.0; } } } else { if (input[7] <= 0.4573749452829361) { if (input[2] <= 0.8734130859375) { var2 = 5.0; } else { var2 = 6.0; } } else { var2 = 8.0; } } } var var3; if (input[3] <= 0.28564453125) { if (input[8] <= 0.20691553503274918) { var3 = 5.0; } else { var3 = 8.0; } } else { if (input[0] <= 57434.5) { if (input[15] <= 1.5) { var3 = 10.0; } else { var3 = 9.0; } } else { if (input[2] <= 38.814697265625) { var3 = 13.0; } else { var3 = 10.0; } } } var var4; if (input[8] <= 0.43353210389614105) { if (input[9] <= 0.2660546824336052) { if (input[0] <= 44642.0) { var4 = 10.0; } else { var4 = 8.0; } } else { if (input[2] <= 0.8734130859375) { var4 = 5.0; } else { var4 = 6.0; } } } else { var4 = 10.0; } var var5; if (input[0] <= 57434.5) { if (input[14] <= 0.5) { if (input[12] <= 2.997802734375) { var5 = 10.0; } else { var5 = 9.0; } } else { if (input[7] <= 0.0928369015455246) { if (input[12] <= 1.951416015625) { var5 = 8.0; } else { var5 = 10.0; } } else { if (input[18] <= 0.5) { var5 = 6.0; } else { var5 = 5.0; } } } } else { var5 = 13.0; } var var6; if (input[10] <= 22.5) { if (input[3] <= 0.28564453125) { var6 = 8.0; } else { var6 = 10.0; } } else { var6 = 13.0; } var var7; if (input[5] <= 8.5) { if (input[13] <= 184.5) { var7 = 5.0; } else { var7 = 8.0; } } else { if (input[0] <= 57434.5) { if (input[12] <= 2.997802734375) { var7 = 10.0; } else { var7 = 9.0; } } else { if (input[6] <= 43.0) { var7 = 13.0; } else { var7 = 10.0; } } } var var8; if (input[2] <= 2.6092529296875) { if (input[13] <= 378.5) { var8 = 6.0; } else { var8 = 8.0; } } else { if (input[1] <= 99.34110641479492) { var8 = 10.0; } else { var8 = 9.0; } } var var9; if (input[32] <= 0.5) { if (input[0] <= 56912.0) { var9 = 10.0; } else { if (input[6] <= 39.5) { var9 = 13.0; } else { var9 = 10.0; } } } else { if (input[11] <= 6.5) { var9 = 8.0; } else { var9 = 6.0; } } var var10; if (input[0] <= 57434.5) { if (input[2] <= 17.63580322265625) { if (input[12] <= 1.943359375) { var10 = 6.0; } else { var10 = 5.0; } } else { if (input[5] <= 12.5) { var10 = 9.0; } else { var10 = 10.0; } } } else { var10 = 13.0; } var var11; if (input[32] <= 0.5) { if (input[1] <= 99.31118392944336) { var11 = 10.0; } else { if (input[10] <= 11.5) { var11 = 10.0; } else { var11 = 13.0; } } } else { if (input[2] <= 1.11236572265625) { if (input[4] <= 0.043147895485162735) { var11 = 8.0; } else { if (input[0] <= 42221.0) { var11 = 5.0; } else { var11 = 6.0; } } } else { if (input[8] <= 0.620672695338726) { var11 = 8.0; } else { if (input[1] <= 99.33072662353516) { var11 = 10.0; } else { var11 = 9.0; } } } } var var12; if (input[0] <= 55787.5) { if (input[3] <= 0.87615966796875) { if (input[9] <= 0.2632153183221817) { var12 = 8.0; } else { if (input[18] <= 0.5) { var12 = 6.0; } else { var12 = 5.0; } } } else { if (input[15] <= 1.5) { var12 = 10.0; } else { var12 = 9.0; } } } else { var12 = 13.0; } var var13; if (input[32] <= 0.5) { if (input[2] <= 36.650390625) { if (input[11] <= 4.5) { var13 = 10.0; } else { var13 = 13.0; } } else { var13 = 10.0; } } else { if (input[2] <= 0.73333740234375) { var13 = 5.0; } else { if (input[8] <= 2.6115921065211296) { var13 = 8.0; } else { var13 = 9.0; } } } var var14; if (input[32] <= 0.5) { if (input[5] <= 60.5) { if (input[10] <= 22.5) { var14 = 10.0; } else { var14 = 13.0; } } else { var14 = 13.0; } } else { if (input[13] <= 293.5) { if (input[3] <= 9.85748291015625) { var14 = 8.0; } else { if (input[6] <= 25.5) { var14 = 10.0; } else { var14 = 9.0; } } } else { var14 = 6.0; } } var var15; if (input[32] <= 0.5) { if (input[10] <= 22.5) { var15 = 10.0; } else { var15 = 13.0; } } else { if (input[2] <= 0.73333740234375) { var15 = 5.0; } else { if (input[8] <= 0.11516971699893475) { var15 = 6.0; } else { if (input[15] <= 1.5) { var15 = 8.0; } else { var15 = 9.0; } } } } var var16; if (input[0] <= 57434.5) { if (input[2] <= 17.720947265625) { if (input[6] <= 49.5) { var16 = 8.0; } else { var16 = 6.0; } } else { var16 = 10.0; } } else { var16 = 13.0; } var var17; if (input[32] <= 0.5) { if (input[10] <= 22.5) { var17 = 10.0; } else { var17 = 13.0; } } else { if (input[8] <= 0.20691553503274918) { if (input[12] <= 1.943359375) { var17 = 6.0; } else { var17 = 5.0; } } else { if (input[18] <= 0.5) { var17 = 9.0; } else { var17 = 8.0; } } } var var18; if (input[32] <= 0.5) { if (input[0] <= 53971.5) { var18 = 10.0; } else { var18 = 13.0; } } else { if (input[4] <= 0.15531054884195328) { if (input[8] <= 0.11516971699893475) { var18 = 6.0; } else { if (input[7] <= 16.25925412774086) { var18 = 8.0; } else { var18 = 9.0; } } } else { var18 = 5.0; } } var var19; if (input[32] <= 0.5) { if (input[0] <= 56912.0) { var19 = 10.0; } else { if (input[23] <= 0.5) { var19 = 13.0; } else { var19 = 10.0; } } } else { if (input[3] <= 0.23345947265625) { var19 = 5.0; } else { if (input[11] <= 7.5) { if (input[2] <= 17.841796875) { var19 = 8.0; } else { var19 = 9.0; } } else { var19 = 6.0; } } } var var20; if (input[3] <= 0.27740478515625) { var20 = 5.0; } else { if (input[10] <= 21.5) { if (input[5] <= 52.0) { if (input[10] <= 18.5) { var20 = 10.0; } else { var20 = 9.0; } } else { if (input[12] <= 1.64208984375) { var20 = 8.0; } else { var20 = 6.0; } } } else { var20 = 13.0; } } var var21; if (input[0] <= 33954.5) { var21 = 5.0; } else { if (input[4] <= 0.1921856328845024) { if (input[12] <= 2.233642578125) { if (input[0] <= 54378.5) { var21 = 7.6; } else { var21 = 10.0; } } else { var21 = 10.0; } } else { if (input[4] <= 0.5344129651784897) { var21 = 13.0; } else { var21 = 10.0; } } } var var22; if (input[32] <= 0.5) { if (input[0] <= 57434.5) { var22 = 10.0; } else { var22 = 13.0; } } else { if (input[11] <= 2.5) { var22 = 8.0; } else { if (input[3] <= 0.4669189453125) { var22 = 5.0; } else { var22 = 6.0; } } } var var23; if (input[0] <= 57434.5) { if (input[3] <= 0.23345947265625) { var23 = 5.0; } else { if (input[5] <= 9.0) { var23 = 8.0; } else { var23 = 10.0; } } } else { if (input[12] <= 1.311767578125) { var23 = 10.0; } else { var23 = 13.0; } } var var24; if (input[0] <= 57434.5) { if (input[32] <= 0.5) { var24 = 10.0; } else { if (input[14] <= 0.5) { if (input[12] <= 2.739013671875) { var24 = 10.0; } else { var24 = 9.0; } } else { var24 = 8.0; } } } else { var24 = 13.0; } var var25; if (input[0] <= 80867.0) { if (input[10] <= 9.5) { var25 = 5.0; } else { if (input[8] <= 0.620672695338726) { var25 = 8.0; } else { if (input[15] <= 1.5) { var25 = 10.0; } else { var25 = 9.0; } } } } else { var25 = 13.0; } var var26; if (input[5] <= 53.0) { if (input[13] <= 286.0) { if (input[15] <= 1.5) { var26 = 10.0; } else { var26 = 9.0; } } else { var26 = 13.0; } } else { if (input[4] <= 0.043147895485162735) { var26 = 8.0; } else { var26 = 6.0; } } var var27; if (input[2] <= 0.73333740234375) { var27 = 5.0; } else { if (input[10] <= 22.5) { if (input[32] <= 0.5) { var27 = 10.0; } else { if (input[4] <= 0.004117977136047557) { var27 = 9.0; } else { var27 = 8.0; } } } else { var27 = 13.0; } } var var28; if (input[0] <= 55787.5) { if (input[3] <= 0.87615966796875) { if (input[10] <= 15.5) { var28 = 8.0; } else { var28 = 6.0; } } else { if (input[5] <= 12.0) { var28 = 9.0; } else { var28 = 10.0; } } } else { var28 = 13.0; } var var29; if (input[32] <= 0.5) { if (input[0] <= 57434.5) { var29 = 10.0; } else { var29 = 13.0; } } else { if (input[1] <= 99.36217880249023) { if (input[7] <= 16.25925412774086) { var29 = 8.0; } else { var29 = 9.0; } } else { var29 = 5.0; } } var var30; if (input[0] <= 57434.5) { if (input[1] <= 99.36217880249023) { if (input[32] <= 0.5) { var30 = 10.0; } else { if (input[14] <= 0.5) { var30 = 9.0; } else { var30 = 8.0; } } } else { var30 = 5.0; } } else { if (input[12] <= 1.311767578125) { var30 = 10.0; } else { var30 = 13.0; } } var var31; if (input[13] <= 354.0) { if (input[5] <= 60.5) { if (input[3] <= 0.28564453125) { var31 = 8.0; } else { if (input[12] <= 2.78759765625) { var31 = 10.0; } else { var31 = 9.0; } } } else { var31 = 13.0; } } else { var31 = 6.0; } var var32; if (input[32] <= 0.5) { if (input[10] <= 21.0) { var32 = 10.0; } else { var32 = 13.0; } } else { if (input[6] <= 49.5) { var32 = 8.0; } else { var32 = 6.0; } } var var33; if (input[11] <= 2.5) { var33 = 8.0; } else { if (input[5] <= 31.0) { if (input[12] <= 2.739013671875) { var33 = 10.0; } else { var33 = 9.0; } } else { if (input[4] <= 0.4445643350481987) { var33 = 13.0; } else { var33 = 10.0; } } } var var34; if (input[32] <= 0.5) { if (input[10] <= 22.0) { var34 = 10.0; } else { var34 = 13.0; } } else { if (input[1] <= 99.3455581665039) { var34 = 8.0; } else { var34 = 5.0; } } var var35; if (input[32] <= 0.5) { if (input[9] <= 0.34030774235725403) { var35 = 10.0; } else { var35 = 13.0; } } else { if (input[8] <= 0.13116625510156155) { var35 = 6.0; } else { var35 = 8.0; } } var var36; if (input[0] <= 56912.0) { if (input[11] <= 3.0) { var36 = 8.0; } else { if (input[12] <= 2.78759765625) { var36 = 10.0; } else { var36 = 9.0; } } } else { if (input[12] <= 1.311767578125) { var36 = 10.0; } else { var36 = 13.0; } } var var37; if (input[10] <= 13.5) { if (input[6] <= 30.5) { var37 = 5.0; } else { var37 = 8.0; } } else { if (input[0] <= 57434.5) { var37 = 10.0; } else { var37 = 13.0; } } var var38; if (input[32] <= 0.5) { if (input[0] <= 57434.5) { var38 = 10.0; } else { if (input[6] <= 43.0) { var38 = 13.0; } else { var38 = 10.0; } } } else { if (input[12] <= 1.972900390625) { var38 = 6.0; } else { if (input[0] <= 50497.0) { var38 = 8.0; } else { if (input[9] <= 0.35178183019161224) { var38 = 10.0; } else { var38 = 9.0; } } } } var var39; if (input[32] <= 0.5) { if (input[2] <= 2.625732421875) { var39 = 13.0; } else { if (input[10] <= 22.0) { var39 = 10.0; } else { var39 = 13.0; } } } else { if (input[8] <= 0.11516971699893475) { var39 = 6.0; } else { if (input[13] <= 158.5) { var39 = 9.0; } else { var39 = 8.0; } } } var var40; if (input[2] <= 1.043701171875) { if (input[5] <= 36.0) { var40 = 5.0; } else { var40 = 6.0; } } else { if (input[5] <= 27.5) { if (input[11] <= 6.5) { if (input[18] <= 0.5) { var40 = 9.0; } else { var40 = 8.0; } } else { var40 = 10.0; } } else { if (input[2] <= 38.814697265625) { var40 = 13.0; } else { var40 = 10.0; } } } var var41; if (input[11] <= 4.5) { if (input[4] <= 0.15531054884195328) { if (input[4] <= 0.004117977136047557) { var41 = 9.0; } else { var41 = 8.0; } } else { var41 = 5.0; } } else { if (input[10] <= 22.5) { var41 = 10.0; } else { var41 = 13.0; } } var var42; if (input[0] <= 55787.5) { if (input[3] <= 0.23345947265625) { var42 = 5.0; } else { if (input[13] <= 220.5) { if (input[5] <= 12.0) { var42 = 9.0; } else { var42 = 10.0; } } else { var42 = 8.0; } } } else { if (input[6] <= 43.0) { var42 = 13.0; } else { var42 = 10.0; } } var var43; if (input[2] <= 1.043701171875) { if (input[7] <= 0.0928369015455246) { if (input[13] <= 285.5) { var43 = 10.0; } else { var43 = 8.0; } } else { if (input[3] <= 0.4669189453125) { var43 = 5.0; } else { var43 = 6.0; } } } else { if (input[0] <= 57434.5) { if (input[1] <= 99.33122634887695) { var43 = 10.0; } else { var43 = 9.0; } } else { var43 = 13.0; } } var var44; if (input[8] <= 0.620672695338726) { if (input[3] <= 0.23345947265625) { var44 = 5.0; } else { var44 = 8.0; } } else { if (input[10] <= 22.0) { if (input[15] <= 1.5) { var44 = 10.0; } else { var44 = 9.0; } } else { var44 = 13.0; } } var var45; if (input[3] <= 0.27740478515625) { var45 = 5.0; } else { if (input[0] <= 56912.0) { if (input[32] <= 0.5) { var45 = 10.0; } else { if (input[7] <= 16.008171543478966) { var45 = 8.0; } else { var45 = 9.0; } } } else { var45 = 13.0; } } var var46; if (input[32] <= 0.5) { if (input[13] <= 286.0) { var46 = 10.0; } else { var46 = 13.0; } } else { if (input[11] <= 7.5) { if (input[1] <= 99.33197402954102) { var46 = 8.0; } else { var46 = 9.0; } } else { var46 = 6.0; } } var var47; if (input[7] <= 0.18665413558483124) { if (input[13] <= 378.5) { var47 = 6.0; } else { var47 = 8.0; } } else { if (input[5] <= 60.5) { if (input[15] <= 1.5) { var47 = 10.0; } else { var47 = 9.0; } } else { var47 = 13.0; } } var var48; if (input[7] <= 0.7944670170545578) { if (input[9] <= 0.2632153183221817) { var48 = 8.0; } else { if (input[3] <= 0.4669189453125) { var48 = 5.0; } else { var48 = 6.0; } } } else { if (input[10] <= 22.5) { if (input[32] <= 0.5) { var48 = 10.0; } else { var48 = 9.0; } } else { var48 = 13.0; } } var var49; if (input[32] <= 0.5) { if (input[24] <= 0.5) { var49 = 10.0; } else { var49 = 13.0; } } else { if (input[11] <= 6.5) { var49 = 8.0; } else { var49 = 6.0; } } var var50; if (input[3] <= 0.27740478515625) { var50 = 5.0; } else { if (input[40] <= 0.5) { var50 = 13.0; } else { if (input[32] <= 0.5) { var50 = 10.0; } else { if (input[8] <= 2.595595568418503) { var50 = 8.0; } else { var50 = 9.0; } } } } var var51; if (input[11] <= 5.0) { if (input[11] <= 2.5) { var51 = 8.0; } else { var51 = 5.0; } } else { if (input[5] <= 31.0) { var51 = 10.0; } else { var51 = 13.0; } } var var52; if (input[32] <= 0.5) { if (input[6] <= 35.5) { if (input[6] <= 12.5) { var52 = 10.0; } else { var52 = 13.0; } } else { var52 = 10.0; } } else { if (input[6] <= 49.5) { if (input[7] <= 16.25925412774086) { var52 = 8.0; } else { var52 = 9.0; } } else { var52 = 6.0; } } var var53; if (input[32] <= 0.5) { if (input[23] <= 0.5) { if (input[10] <= 12.0) { var53 = 10.0; } else { var53 = 13.0; } } else { var53 = 10.0; } } else { if (input[4] <= 0.043147895485162735) { if (input[7] <= 16.008171543478966) { var53 = 8.0; } else { var53 = 9.0; } } else { if (input[8] <= 0.20691553503274918) { if (input[0] <= 42221.0) { var53 = 5.0; } else { var53 = 6.0; } } else { var53 = 8.0; } } } var var54; if (input[0] <= 57434.5) { if (input[3] <= 0.23345947265625) { var54 = 5.0; } else { if (input[5] <= 12.0) { if (input[14] <= 0.5) { var54 = 9.0; } else { var54 = 8.0; } } else { var54 = 10.0; } } } else { var54 = 13.0; } var var55; if (input[0] <= 34496.5) { var55 = 5.0; } else { if (input[10] <= 22.5) { if (input[8] <= 0.43497972935438156) { var55 = 8.0; } else { var55 = 10.0; } } else { var55 = 13.0; } } var var56; if (input[10] <= 22.5) { if (input[7] <= 0.6810115575790405) { if (input[4] <= 0.043147895485162735) { var56 = 8.0; } else { var56 = 6.0; } } else { if (input[12] <= 2.739013671875) { var56 = 10.0; } else { var56 = 9.0; } } } else { var56 = 13.0; } var var57; if (input[13] <= 293.5) { if (input[5] <= 58.0) { if (input[15] <= 1.5) { var57 = 10.0; } else { var57 = 9.0; } } else { var57 = 13.0; } } else { if (input[2] <= 0.88714599609375) { var57 = 8.0; } else { var57 = 6.0; } } var var58; if (input[10] <= 22.5) { if (input[32] <= 0.5) { var58 = 10.0; } else { if (input[10] <= 16.0) { var58 = 8.0; } else { var58 = 9.0; } } } else { var58 = 13.0; } var var59; if (input[0] <= 57434.5) { if (input[6] <= 47.5) { if (input[5] <= 12.0) { if (input[15] <= 1.5) { var59 = 8.0; } else { var59 = 9.0; } } else { var59 = 10.0; } } else { var59 = 6.0; } } else { if (input[23] <= 0.5) { var59 = 13.0; } else { var59 = 10.0; } } var var60; if (input[32] <= 0.5) { if (input[4] <= 0.1921856328845024) { var60 = 10.0; } else { var60 = 13.0; } } else { if (input[11] <= 2.5) { var60 = 8.0; } else { if (input[5] <= 36.0) { var60 = 5.0; } else { var60 = 6.0; } } } var var61; if (input[3] <= 0.27740478515625) { var61 = 5.0; } else { if (input[10] <= 22.0) { if (input[15] <= 1.5) { var61 = 10.0; } else { var61 = 9.0; } } else { var61 = 13.0; } } var var62; if (input[3] <= 0.27740478515625) { var62 = 5.0; } else { if (input[13] <= 354.0) { if (input[32] <= 0.5) { var62 = 10.0; } else { var62 = 9.0; } } else { var62 = 6.0; } } var var63; if (input[3] <= 0.3460693359375) { var63 = 5.0; } else { if (input[0] <= 57434.5) { if (input[9] <= 0.24584519863128662) { var63 = 8.0; } else { if (input[5] <= 12.0) { var63 = 9.0; } else { var63 = 10.0; } } } else { if (input[13] <= 344.0) { var63 = 13.0; } else { var63 = 10.0; } } } var var64; if (input[0] <= 55787.5) { if (input[13] <= 220.5) { if (input[5] <= 12.0) { var64 = 9.0; } else { var64 = 10.0; } } else { var64 = 8.0; } } else { var64 = 13.0; } var var65; if (input[32] <= 0.5) { if (input[0] <= 57434.5) { var65 = 10.0; } else { if (input[23] <= 0.5) { var65 = 13.0; } else { var65 = 10.0; } } } else { if (input[4] <= 0.043147895485162735) { if (input[3] <= 10.10467529296875) { var65 = 8.0; } else { var65 = 9.0; } } else { if (input[3] <= 0.4669189453125) { var65 = 5.0; } else { var65 = 6.0; } } } var var66; if (input[0] <= 57434.5) { if (input[7] <= 3.0286974012851715) { if (input[9] <= 0.2660546824336052) { if (input[23] <= 0.5) { var66 = 8.0; } else { var66 = 10.0; } } else { if (input[7] <= 0.2136409729719162) { var66 = 6.0; } else { var66 = 5.0; } } } else { if (input[5] <= 12.0) { var66 = 9.0; } else { var66 = 10.0; } } } else { var66 = 13.0; } var var67; if (input[32] <= 0.5) { if (input[12] <= 1.338134765625) { var67 = 10.0; } else { if (input[0] <= 57434.5) { var67 = 10.0; } else { var67 = 13.0; } } } else { if (input[10] <= 9.5) { var67 = 5.0; } else { if (input[6] <= 49.5) { if (input[1] <= 99.33197402954102) { var67 = 8.0; } else { var67 = 9.0; } } else { var67 = 6.0; } } } var var68; if (input[32] <= 0.5) { if (input[6] <= 35.5) { if (input[9] <= 0.5395918637514114) { var68 = 13.0; } else { var68 = 10.0; } } else { var68 = 10.0; } } else { if (input[1] <= 99.36217880249023) { if (input[8] <= 0.11516971699893475) { var68 = 6.0; } else { if (input[15] <= 1.5) { var68 = 8.0; } else { var68 = 9.0; } } } else { var68 = 5.0; } } var var69; if (input[32] <= 0.5) { if (input[10] <= 22.5) { if (input[28] <= 0.5) { var69 = 10.0; } else { var69 = 13.0; } } else { var69 = 13.0; } } else { if (input[0] <= 50527.5) { var69 = 8.0; } else { var69 = 6.0; } } var var70; if (input[7] <= 0.9247455298900604) { if (input[15] <= 1.5) { var70 = 8.0; } else { var70 = 5.0; } } else { if (input[7] <= 105.83435249328613) { if (input[4] <= 0.0008573294908273965) { var70 = 9.0; } else { var70 = 10.0; } } else { var70 = 13.0; } } var var71; if (input[32] <= 0.5) { if (input[28] <= 0.5) { var71 = 10.0; } else { var71 = 13.0; } } else { if (input[0] <= 40185.5) { var71 = 5.0; } else { if (input[8] <= 0.11516971699893475) { var71 = 6.0; } else { if (input[4] <= 0.004117977136047557) { var71 = 9.0; } else { var71 = 8.0; } } } } var var72; if (input[0] <= 56912.0) { if (input[8] <= 0.43497972935438156) { if (input[8] <= 0.11516971699893475) { var72 = 6.0; } else { var72 = 8.0; } } else { var72 = 10.0; } } else { if (input[12] <= 1.311767578125) { var72 = 10.0; } else { var72 = 13.0; } } var var73; if (input[0] <= 57434.5) { if (input[13] <= 311.5) { var73 = 10.0; } else { var73 = 8.0; } } else { var73 = 13.0; } var var74; if (input[3] <= 0.23345947265625) { var74 = 5.0; } else { if (input[32] <= 0.5) { if (input[0] <= 70994.5) { var74 = 10.0; } else { var74 = 13.0; } } else { if (input[15] <= 1.5) { var74 = 8.0; } else { var74 = 9.0; } } } var var75; if (input[32] <= 0.5) { if (input[5] <= 31.0) { var75 = 10.0; } else { var75 = 13.0; } } else { if (input[11] <= 2.5) { var75 = 8.0; } else { if (input[9] <= 0.3123818635940552) { var75 = 5.0; } else { var75 = 6.0; } } } var var76; if (input[3] <= 0.8624267578125) { if (input[5] <= 5.5) { var76 = 8.0; } else { if (input[11] <= 7.0) { var76 = 5.0; } else { var76 = 6.0; } } } else { if (input[26] <= 0.5) { if (input[11] <= 5.5) { var76 = 9.0; } else { var76 = 10.0; } } else { var76 = 13.0; } } var var77; if (input[15] <= 1.5) { if (input[0] <= 55501.5) { if (input[13] <= 290.0) { var77 = 10.0; } else { var77 = 6.0; } } else { var77 = 13.0; } } else { var77 = 5.0; } var var78; if (input[32] <= 0.5) { if (input[0] <= 57434.5) { var78 = 10.0; } else { var78 = 13.0; } } else { if (input[10] <= 9.5) { var78 = 5.0; } else { if (input[11] <= 5.5) { var78 = 8.0; } else { var78 = 10.0; } } } var var79; if (input[32] <= 0.5) { if (input[5] <= 38.5) { var79 = 10.0; } else { if (input[40] <= 0.5) { var79 = 13.0; } else { var79 = 10.0; } } } else { if (input[13] <= 378.5) { if (input[7] <= 0.2136409729719162) { var79 = 6.0; } else { var79 = 5.0; } } else { var79 = 8.0; } } var var80; if (input[32] <= 0.5) { if (input[0] <= 57434.5) { var80 = 10.0; } else { if (input[13] <= 344.0) { var80 = 13.0; } else { var80 = 10.0; } } } else { if (input[3] <= 0.72235107421875) { if (input[15] <= 1.5) { var80 = 6.0; } else { var80 = 5.0; } } else { if (input[7] <= 32.24256134033203) { if (input[14] <= 0.5) { var80 = 9.0; } else { var80 = 8.0; } } else { var80 = 10.0; } } } var var81; if (input[8] <= 0.43497972935438156) { if (input[10] <= 15.5) { var81 = 8.0; } else { var81 = 6.0; } } else { if (input[0] <= 58859.5) { if (input[15] <= 1.5) { var81 = 10.0; } else { var81 = 9.0; } } else { var81 = 13.0; } } var var82; if (input[32] <= 0.5) { if (input[0] <= 56912.0) { var82 = 10.0; } else { var82 = 13.0; } } else { if (input[12] <= 2.143310546875) { if (input[0] <= 52908.5) { if (input[6] <= 37.0) { var82 = 5.0; } else { var82 = 6.0; } } else { var82 = 8.0; } } else { if (input[5] <= 8.0) { var82 = 8.0; } else { if (input[1] <= 99.33072662353516) { var82 = 10.0; } else { var82 = 9.0; } } } } var var83; if (input[32] <= 0.5) { if (input[0] <= 56912.0) { var83 = 10.0; } else { var83 = 13.0; } } else { if (input[8] <= 0.20691553503274918) { if (input[11] <= 7.0) { var83 = 5.0; } else { var83 = 6.0; } } else { if (input[3] <= 20.0830078125) { if (input[14] <= 0.5) { var83 = 9.0; } else { var83 = 8.0; } } else { var83 = 10.0; } } } var var84; if (input[32] <= 0.5) { if (input[0] <= 57434.5) { var84 = 10.0; } else { if (input[41] <= 0.5) { var84 = 10.0; } else { var84 = 13.0; } } } else { if (input[1] <= 99.36217880249023) { if (input[11] <= 7.5) { if (input[4] <= 0.004117977136047557) { var84 = 9.0; } else { var84 = 8.0; } } else { var84 = 6.0; } } else { var84 = 5.0; } } var var85; if (input[32] <= 0.5) { if (input[10] <= 22.0) { if (input[5] <= 60.5) { var85 = 10.0; } else { var85 = 13.0; } } else { var85 = 13.0; } } else { if (input[2] <= 18.47076416015625) { if (input[19] <= 0.5) { var85 = 5.0; } else { var85 = 6.0; } } else { var85 = 10.0; } } var var86; if (input[32] <= 0.5) { if (input[4] <= 0.1921856328845024) { var86 = 10.0; } else { var86 = 13.0; } } else { if (input[7] <= 0.4573749452829361) { if (input[19] <= 0.5) { var86 = 5.0; } else { var86 = 6.0; } } else { if (input[4] <= 0.0004863356225541793) { var86 = 10.0; } else { if (input[7] <= 16.25925412774086) { var86 = 8.0; } else { var86 = 9.0; } } } } var var87; if (input[15] <= 1.5) { if (input[13] <= 354.0) { var87 = 10.0; } else { if (input[2] <= 0.88714599609375) { var87 = 8.0; } else { var87 = 6.0; } } } else { var87 = 5.0; } var var88; if (input[0] <= 57434.5) { if (input[2] <= 17.720947265625) { if (input[5] <= 35.5) { var88 = 8.0; } else { var88 = 6.0; } } else { if (input[3] <= 13.9801025390625) { var88 = 10.0; } else { var88 = 9.0; } } } else { var88 = 13.0; } var var89; if (input[6] <= 49.5) { if (input[32] <= 0.5) { var89 = 10.0; } else { if (input[4] <= 0.004117977136047557) { if (input[12] <= 2.739013671875) { var89 = 10.0; } else { var89 = 9.0; } } else { var89 = 8.0; } } } else { var89 = 6.0; } var var90; if (input[2] <= 1.043701171875) { if (input[13] <= 378.5) { if (input[11] <= 7.0) { var90 = 5.0; } else { var90 = 6.0; } } else { var90 = 8.0; } } else { if (input[7] <= 3.8833727687597275) { var90 = 13.0; } else { if (input[5] <= 12.0) { var90 = 9.0; } else { var90 = 10.0; } } } var var91; if (input[7] <= 112.58925819396973) { if (input[32] <= 0.5) { var91 = 10.0; } else { if (input[11] <= 3.0) { var91 = 8.0; } else { var91 = 9.0; } } } else { var91 = 13.0; } var var92; if (input[32] <= 0.5) { if (input[10] <= 22.0) { var92 = 10.0; } else { var92 = 13.0; } } else { if (input[2] <= 0.73333740234375) { var92 = 5.0; } else { if (input[15] <= 1.5) { var92 = 8.0; } else { var92 = 9.0; } } } var var93; if (input[40] <= 0.5) { var93 = 13.0; } else { if (input[7] <= 0.9247455298900604) { if (input[10] <= 15.5) { var93 = 8.0; } else { var93 = 6.0; } } else { if (input[15] <= 1.5) { var93 = 10.0; } else { var93 = 9.0; } } } var var94; if (input[7] <= 4.040638118982315) { if (input[5] <= 5.5) { var94 = 8.0; } else { if (input[2] <= 0.8734130859375) { var94 = 5.0; } else { var94 = 6.0; } } } else { if (input[10] <= 22.5) { if (input[15] <= 1.5) { var94 = 10.0; } else { var94 = 9.0; } } else { var94 = 13.0; } } var var95; if (input[32] <= 0.5) { if (input[41] <= 0.5) { var95 = 10.0; } else { var95 = 13.0; } } else { if (input[11] <= 2.5) { var95 = 8.0; } else { if (input[3] <= 0.4669189453125) { var95 = 5.0; } else { var95 = 6.0; } } } var var96; if (input[5] <= 54.0) { if (input[2] <= 112.85430908203125) { if (input[12] <= 2.78759765625) { var96 = 10.0; } else { var96 = 9.0; } } else { var96 = 13.0; } } else { if (input[5] <= 74.0) { var96 = 6.0; } else { var96 = 8.0; } } var var97; if (input[41] <= 0.5) { if (input[11] <= 5.5) { if (input[8] <= 2.6115921065211296) { var97 = 8.0; } else { var97 = 9.0; } } else { var97 = 10.0; } } else { if (input[1] <= 99.33703231811523) { var97 = 13.0; } else { var97 = 10.0; } } var var98; if (input[0] <= 56912.0) { if (input[6] <= 41.0) { if (input[15] <= 1.5) { var98 = 10.0; } else { var98 = 9.0; } } else { if (input[13] <= 378.5) { var98 = 6.0; } else { var98 = 8.0; } } } else { if (input[12] <= 1.311767578125) { var98 = 10.0; } else { var98 = 13.0; } } var var99; if (input[10] <= 22.0) { if (input[13] <= 354.0) { if (input[5] <= 12.0) { if (input[11] <= 3.0) { var99 = 8.0; } else { var99 = 9.0; } } else { var99 = 10.0; } } else { if (input[2] <= 0.88714599609375) { var99 = 8.0; } else { var99 = 6.0; } } } else { var99 = 13.0; } return (var0 + var1 + var2 + var3 + var4 + var5 + var6 + var7 + var8 + var9 + var10 + var11 + var12 + var13 + var14 + var15 + var16 + var17 + var18 + var19 + var20 + var21 + var22 + var23 + var24 + var25 + var26 + var27 + var28 + var29 + var30 + var31 + var32 + var33 + var34 + var35 + var36 + var37 + var38 + var39 + var40 + var41 + var42 + var43 + var44 + var45 + var46 + var47 + var48 + var49 + var50 + var51 + var52 + var53 + var54 + var55 + var56 + var57 + var58 + var59 + var60 + var61 + var62 + var63 + var64 + var65 + var66 + var67 + var68 + var69 + var70 + var71 + var72 + var73 + var74 + var75 + var76 + var77 + var78 + var79 + var80 + var81 + var82 + var83 + var84 + var85 + var86 + var87 + var88 + var89 + var90 + var91 + var92 + var93 + var94 + var95 + var96 + var97 + var98 + var99) * 0.01; }
export{predictRepCount};
